digraph Tree {
node [shape=box, style="filled, rounded", color="black", fontname=helvetica] ;
edge [fontname=helvetica] ;
0 [label="petal width (cm) <= 0.7\ngini = 0.66\nsamples = 94\nvalue = [55, 49, 46]\nclass = setosa", fillcolor="#fdf8f3"] ;
1 [label="gini = 0.0\nsamples = 31\nvalue = [55, 0, 0]\nclass = setosa", fillcolor="#e58139"] ;
0 -> 1 [labeldistance=2.5, labelangle=45, headlabel="True"] ;
2 [label="petal length (cm) <= 4.75\ngini = 0.5\nsamples = 63\nvalue = [0, 49, 46]\nclass = versicolor", fillcolor="#f3fdf7"] ;
0 -> 2 [labeldistance=2.5, labelangle=-45, headlabel="False"] ;
3 [label="gini = 0.0\nsamples = 30\nvalue = [0, 47, 0]\nclass = versicolor", fillcolor="#39e581"] ;
2 -> 3 ;
4 [label="petal width (cm) <= 1.55\ngini = 0.08\nsamples = 33\nvalue = [0, 2, 46]\nclass = virginica", fillcolor="#8642e6"] ;
2 -> 4 ;
5 [label="petal length (cm) <= 5.25\ngini = 0.44\nsamples = 2\nvalue = [0, 2, 1]\nclass = versicolor", fillcolor="#9cf2c0"] ;
4 -> 5 ;
6 [label="gini = 0.0\nsamples = 1\nvalue = [0, 2, 0]\nclass = versicolor", fillcolor="#39e581"] ;
5 -> 6 ;
7 [label="gini = 0.0\nsamples = 1\nvalue = [0, 0, 1]\nclass = virginica", fillcolor="#8139e5"] ;
5 -> 7 ;
8 [label="gini = 0.0\nsamples = 31\nvalue = [0, 0, 45]\nclass = virginica", fillcolor="#8139e5"] ;
4 -> 8 ;
}