digraph Tree {
node [shape=box, style="filled, rounded", color="black", fontname=helvetica] ;
edge [fontname=helvetica] ;
0 [label="petal width (cm) <= 0.8\ngini = 0.66\nsamples = 95\nvalue = [47, 55, 48]\nclass = versicolor", fillcolor="#f1fdf6"] ;
1 [label="gini = 0.0\nsamples = 29\nvalue = [47, 0, 0]\nclass = setosa", fillcolor="#e58139"] ;
0 -> 1 [labeldistance=2.5, labelangle=45, headlabel="True"] ;
2 [label="sepal length (cm) <= 6.25\ngini = 0.5\nsamples = 66\nvalue = [0, 55, 48]\nclass = versicolor", fillcolor="#e6fcef"] ;
0 -> 2 [labeldistance=2.5, labelangle=-45, headlabel="False"] ;
3 [label="petal length (cm) <= 4.75\ngini = 0.34\nsamples = 37\nvalue = [0, 44, 12]\nclass = versicolor", fillcolor="#6feca3"] ;
2 -> 3 ;
4 [label="petal width (cm) <= 1.65\ngini = 0.04\nsamples = 30\nvalue = [0, 44, 1]\nclass = versicolor", fillcolor="#3de684"] ;
3 -> 4 ;
5 [label="gini = 0.0\nsamples = 29\nvalue = [0, 44, 0]\nclass = versicolor", fillcolor="#39e581"] ;
4 -> 5 ;
6 [label="gini = 0.0\nsamples = 1\nvalue = [0, 0, 1]\nclass = virginica", fillcolor="#8139e5"] ;
4 -> 6 ;
7 [label="gini = 0.0\nsamples = 7\nvalue = [0, 0, 11]\nclass = virginica", fillcolor="#8139e5"] ;
3 -> 7 ;
8 [label="sepal width (cm) <= 2.85\ngini = 0.36\nsamples = 29\nvalue = [0, 11, 36]\nclass = virginica", fillcolor="#a876ed"] ;
2 -> 8 ;
9 [label="petal length (cm) <= 4.85\ngini = 0.5\nsamples = 7\nvalue = [0, 6, 5]\nclass = versicolor", fillcolor="#defbea"] ;
8 -> 9 ;
10 [label="gini = 0.0\nsamples = 2\nvalue = [0, 4, 0]\nclass = versicolor", fillcolor="#39e581"] ;
9 -> 10 ;
11 [label="sepal width (cm) <= 2.6\ngini = 0.41\nsamples = 5\nvalue = [0, 2, 5]\nclass = virginica", fillcolor="#b388ef"] ;
9 -> 11 ;
12 [label="sepal length (cm) <= 6.5\ngini = 0.44\nsamples = 2\nvalue = [0, 2, 1]\nclass = versicolor", fillcolor="#9cf2c0"] ;
11 -> 12 ;
13 [label="gini = 0.0\nsamples = 1\nvalue = [0, 2, 0]\nclass = versicolor", fillcolor="#39e581"] ;
12 -> 13 ;
14 [label="gini = 0.0\nsamples = 1\nvalue = [0, 0, 1]\nclass = virginica", fillcolor="#8139e5"] ;
12 -> 14 ;
15 [label="gini = 0.0\nsamples = 3\nvalue = [0, 0, 4]\nclass = virginica", fillcolor="#8139e5"] ;
11 -> 15 ;
16 [label="petal width (cm) <= 1.75\ngini = 0.24\nsamples = 22\nvalue = [0, 5, 31]\nclass = virginica", fillcolor="#9559e9"] ;
8 -> 16 ;
17 [label="gini = 0.0\nsamples = 5\nvalue = [0, 5, 0]\nclass = versicolor", fillcolor="#39e581"] ;
16 -> 17 ;
18 [label="gini = 0.0\nsamples = 17\nvalue = [0, 0, 31]\nclass = virginica", fillcolor="#8139e5"] ;
16 -> 18 ;
}